{"learner":{"attributes":{"best_iteration":"8","best_score":"0.9967954958463136","scikit_learn":"{\"_estimator_type\": \"classifier\"}"},"feature_names":["subsidy_type","product_type","quantity","subsidy_amount","actual_price","payment_mode","season","transaction_hour","day_of_week","transaction_month","days_since_start","district","land_size_acres","crop_type","income_category","irrigation_type","shop_size","distance_farmer_dealer","seasonality_index","days_since_last_txn","risk_score","subsidy_per_acre","transactions_per_farmer","dealer_farmers_count","avg_quantity_per_farmer","txn_month","txn_quarter","txn_dow","txn_hour","txn_is_weekend","month_sin","month_cos","hour_sin","hour_cos","hour_bin","price_subsidy_ratio","quantity_per_acre","qty_x_distance","price_near_zero","land_is_zero","subsidy_amount_by_farmer_id_mean","subsidy_amount_by_farmer_id_std","subsidy_amount_by_farmer_id_max","subsidy_amount_by_farmer_id_zscore","quantity_by_farmer_id_mean","quantity_by_farmer_id_std","quantity_by_farmer_id_max","quantity_by_farmer_id_zscore","subsidy_amount_by_dealer_id_mean","subsidy_amount_by_dealer_id_std","subsidy_amount_by_dealer_id_max","subsidy_amount_by_dealer_id_zscore","quantity_by_dealer_id_mean","quantity_by_dealer_id_std","quantity_by_dealer_id_max","quantity_by_dealer_id_zscore","dealer_unique_farmers","farmer_txn_count","dealer_txn_count","dealer_farmer_ratio","distance_log","distance_bin","district_subsidy_mean"],"feature_types":["int","int","float","float","float","int","int","int","int","int","float","int","float","int","int","int","int","float","float","float","int","float","int","int","float","int","int","int","int","int","float","float","float","float","float","float","float","float","int","int","float","float","float","float","float","float","float","float","float","float","float","float","float","float","float","float","int","int","int","float","float","int","float"],"gradient_booster":{"model":{"cats":{"enc":[],"feature_segments":[],"sorted_idx":[]},"gbtree_model_param":{"num_parallel_tree":"1","num_trees":"34"},"iteration_indptr":[0,1,2,3,4,5,6,7,8,9,10,11,12,13,14,15,16,17,18,19,20,21,22,23,24,25,26,27,28,29,30,31,32,33,34],"tree_info":[0,0,0,0,0,0,0,0,0,0,0,0,0,0,0,0,0,0,0,0,0,0,0,0,0,0,0,0,0,0,0,0,0,0],"trees":[{"base_weights":[3.8894144E-1,-5.3044543E0,1.6909583E-2,-7.5652644E-2,1.615795E-2],"categories":[],"categories_nodes":[],"categories_segments":[],"categories_sizes":[],"default_left":[0,0,0,0,0],"id":0,"left_children":[1,3,-1,-1,-1],"loss_changes":[1.2909645E4,3.6239355E2,0E0,0E0,0E0],"parents":[2147483647,0,0,1,1],"right_children":[2,4,-1,-1,-1],"split_conditions":[4.6E1,2.3319745E-2,1.6909583E-2,-7.5652644E-2,1.615795E-2],"split_indices":[20,33,0,0,0],"split_type":[0,0,0,0,0],"sum_hessian":[2.7231514E3,3.471473E2,2.376004E3,3.3883133E2,8.315998E0],"tree_param":{"num_deleted":"0","num_feature":"63","num_nodes":"5","size_leaf_vector":"1"}},{"base_weights":[3.8677254E-1,6.149733E-1,-5.9314793E-1,-1.3939552E0,6.8140316E-1,-1.6063188E0,-1.4014739E-1,-1.9308209E-3,-3.3289585E-2,1.0045799E-2,-2.808447E-2,-1.8827604E-2,-5.2477196E-2,-1.1519222E-2,4.331584E-3],"categories":[],"categories_nodes":[],"categories_segments":[],"categories_sizes":[],"default_left":[0,0,0,0,0,0,0,0,0,0,0,0,0,0,0],"id":1,"left_children":[1,3,5,7,9,11,13,-1,-1,-1,-1,-1,-1,-1,-1],"loss_changes":[6.047799E2,2.9294696E2,2.3419597E2,8.8702835E1,2.5481586E2,8.2717926E1,1.1091386E2,0E0,0E0,0E0,0E0,0E0,0E0,0E0,0E0],"parents":[2147483647,0,0,1,1,2,2,3,3,4,4,5,5,6,6],"right_children":[2,4,6,8,10,12,14,-1,-1,-1,-1,-1,-1,-1,-1],"split_conditions":[1E0,-9.6404546E-1,1.01E0,3.1162876E7,1E1,8.553485E-1,1.7194992E1,-1.9308209E-3,-3.3289585E-2,1.0045799E-2,-2.808447E-2,-1.8827604E-2,-5.2477196E-2,-1.1519222E-2,4.331584E-3],"split_indices":[0,32,2,62,1,32,54,0,0,0,0,0,0,0,0],"split_type":[0,0,0,0,0,0,0,0,0,0,0,0,0,0,0],"sum_hessian":[2.7036838E3,2.1931702E3,5.1051367E2,6.994993E1,2.1232202E3,1.5741447E2,3.5309918E2,3.1414783E1,3.853515E1,2.089392E3,3.382819E1,1.4195758E2,1.5456889E1,1.3970354E2,2.1339566E2],"tree_param":{"num_deleted":"0","num_feature":"63","num_nodes":"15","size_leaf_vector":"1"}},{"base_weights":[3.7154427E-1,6.5421176E-1,-1.7981932E-1,1.7458877E-1,1.6853848E-2,4.6486855E-1,-6.1660355E-1,1.6800296E-2,-3.660847E-3,8.035481E-3,-1.9467842E-2,-2.6525417E-2,-2.1056803E-3],"categories":[],"categories_nodes":[],"categories_segments":[],"categories_sizes":[],"default_left":[0,0,0,0,0,0,0,0,0,0,0,0,0],"id":2,"left_children":[1,3,5,7,-1,9,11,-1,-1,-1,-1,-1,-1],"loss_changes":[4.174268E2,4.7799805E2,2.5569441E2,4.365175E2,0E0,7.944003E1,3.2640662E2,0E0,0E0,0E0,0E0,0E0,0E0],"parents":[2147483647,0,0,1,1,2,2,3,3,5,5,6,6],"right_children":[2,4,6,8,-1,10,12,-1,-1,-1,-1,-1,-1],"split_conditions":[1.9991149E0,1.0098912E0,2.5E-1,1E0,1.6853848E-2,2.2E1,2.2347307E2,1.6800296E-2,-3.660847E-3,8.035481E-3,-1.9467842E-2,-2.6525417E-2,-2.1056803E-3],"split_indices":[34,34,12,34,0,11,40,0,0,0,0,0,0],"split_type":[0,0,0,0,0,0,0,0,0,0,0,0,0],"sum_hessian":[2.6774727E3,1.7701202E3,9.073524E2,9.562948E2,8.1382544E2,3.6635437E2,5.409981E2,2.8397238E2,6.723224E2,3.453022E2,2.1052197E1,1.4215099E2,3.9884708E2],"tree_param":{"num_deleted":"0","num_feature":"63","num_nodes":"13","size_leaf_vector":"1"}},{"base_weights":[3.669597E-1,-4.9030147E0,1.6821308E-2,-7.050988E-2,1.6266614E-2],"categories":[],"categories_nodes":[],"categories_segments":[],"categories_sizes":[],"default_left":[0,0,0,0,0],"id":3,"left_children":[1,3,-1,-1,-1],"loss_changes":[1.2008959E4,4.3250977E2,0E0,0E0,0E0],"parents":[2147483647,0,0,1,1],"right_children":[2,4,-1,-1,-1],"split_conditions":[4.6E1,2.3319745E-2,1.6821308E-2,-7.050988E-2,1.6266614E-2],"split_indices":[20,33,0,0,0],"split_type":[0,0,0,0,0],"sum_hessian":[2.6863308E3,3.721507E2,2.3141802E3,3.609333E2,1.1217392E1],"tree_param":{"num_deleted":"0","num_feature":"63","num_nodes":"5","size_leaf_vector":"1"}},{"base_weights":[3.7315303E-1,-4.7180357E0,1.6753953E-2,-6.66515E-2,1.575534E-2],"categories":[],"categories_nodes":[],"categories_segments":[],"categories_sizes":[],"default_left":[0,0,0,0,0],"id":4,"left_children":[1,3,-1,-1,-1],"loss_changes":[1.1454768E4,2.1618555E2,0E0,0E0,0E0],"parents":[2147483647,0,0,1,1],"right_children":[2,4,-1,-1,-1],"split_conditions":[4.6E1,2.3319745E-2,1.6753953E-2,-6.66515E-2,1.575534E-2],"split_indices":[20,33,0,0,0],"split_type":[0,0,0,0,0],"sum_hessian":[2.6873833E3,3.7921506E2,2.3081682E3,3.7315094E2,6.064119E0],"tree_param":{"num_deleted":"0","num_feature":"63","num_nodes":"5","size_leaf_vector":"1"}},{"base_weights":[3.6730063E-1,-7.6300335E-1,5.369152E-1,-5.1960945E-1,-2.9942982E0,-2.763678E-1,8.1648576E-1,-3.346557E-2,-2.9224942E-3,-5.221454E-2,-1.4350711E-2,-7.847802E-3,1.32202115E-2,1.37022585E-2,-7.3048873E-3],"categories":[],"categories_nodes":[],"categories_segments":[],"categories_sizes":[],"default_left":[0,0,0,0,0,0,0,0,0,0,0,0,0,0,0],"id":5,"left_children":[1,3,5,7,9,11,13,-1,-1,-1,-1,-1,-1,-1,-1],"loss_changes":[5.150198E2,1.8948907E2,5.3118304E2,1.8482481E2,5.055777E1,2.1388956E2,4.0502454E2,0E0,0E0,0E0,0E0,0E0,0E0,0E0,0E0],"parents":[2147483647,0,0,1,1,2,2,3,3,4,4,5,5,6,6],"right_children":[2,4,6,8,10,12,14,-1,-1,-1,-1,-1,-1,-1,-1],"split_conditions":[-8.6285084E-1,5E0,-8.612413E-1,1.9733139E2,2.8825636E0,1.9E1,8.658635E-1,-3.346557E-2,-2.9224942E-3,-5.221454E-2,-1.4350711E-2,-7.847802E-3,1.32202115E-2,1.37022585E-2,-7.3048873E-3],"split_indices":[30,13,31,40,60,56,30,0,0,0,0,0,0,0,0],"split_type":[0,0,0,0,0,0,0,0,0,0,0,0,0,0,0],"sum_hessian":[2.6855144E3,3.501841E2,2.3353303E3,3.1613226E2,3.405183E1,5.973208E2,1.7380096E3,4.3861336E1,2.7227094E2,2.4128721E1,9.92311E0,4.8350424E2,1.1381657E2,1.5397084E3,1.9830116E2],"tree_param":{"num_deleted":"0","num_feature":"63","num_nodes":"15","size_leaf_vector":"1"}},{"base_weights":[3.5374898E-1,5.709683E-1,-5.565781E-1,8.212132E-1,3.811255E-2,1.6397117E-2,-7.8241163E-1,1.282197E-2,-1.4021736E-2,-2.2512875E-2,2.956313E-3,-2.9107053E-2,-6.054292E-3],"categories":[],"categories_nodes":[],"categories_segments":[],"categories_sizes":[],"default_left":[0,0,0,0,0,0,0,0,0,0,0,0,0],"id":6,"left_children":[1,3,5,7,9,-1,11,-1,-1,-1,-1,-1,-1],"loss_changes":[5.205832E2,2.8329816E2,1.9963898E2,2.7858997E2,1.9837827E2,0E0,2.0405206E2,0E0,0E0,0E0,0E0,0E0,0E0],"parents":[2147483647,0,0,1,1,2,2,3,3,4,4,6,6],"right_children":[2,4,6,8,10,-1,12,-1,-1,-1,-1,-1,-1],"split_conditions":[1E0,2E0,1E0,8.660254E-1,1.1363623E0,1.6397117E-2,1.7027012E0,1.282197E-2,-1.4021736E-2,-2.2512875E-2,2.956313E-3,-2.9107053E-2,-6.054292E-3],"split_indices":[0,34,34,32,36,0,36,0,0,0,0,0,0],"split_type":[0,0,0,0,0,0,0,0,0,0,0,0,0],"sum_hessian":[2.6318357E3,2.1250066E3,5.0682895E2,1.4456962E3,6.7931055E2,5.798915E1,4.488398E2,1.3676531E3,7.804314E1,6.447319E1,6.1483734E2,9.262823E1,3.5621158E2],"tree_param":{"num_deleted":"0","num_feature":"63","num_nodes":"13","size_leaf_vector":"1"}},{"base_weights":[3.590172E-1,-4.3944435E0,1.6678367E-2,1.5997645E-2,-6.257635E-2],"categories":[],"categories_nodes":[],"categories_segments":[],"categories_sizes":[],"default_left":[0,0,0,0,0],"id":7,"left_children":[1,3,-1,-1,-1],"loss_changes":[1.0831578E4,2.855869E2,0E0,0E0,0E0],"parents":[2147483647,0,0,1,1],"right_children":[2,4,-1,-1,-1],"split_conditions":[4.6E1,1E0,1.6678367E-2,1.5997645E-2,-6.257635E-2],"split_indices":[20,28,0,0,0],"split_type":[0,0,0,0,0],"sum_hessian":[2.6938083E3,4.06654E2,2.2871543E3,8.921082E0,3.977329E2],"tree_param":{"num_deleted":"0","num_feature":"63","num_nodes":"5","size_leaf_vector":"1"}},{"base_weights":[3.506156E-1,5.6807333E-1,-5.126251E-1,6.6420287E-1,-9.144665E-1,1.6302088E-2,-7.1752286E-1,-5.7182256E-3,1.0422176E-2,-2.1688152E-2,8.3562555E-3,-1.3634785E-2,1.1232956E-2],"categories":[],"categories_nodes":[],"categories_segments":[],"categories_sizes":[],"default_left":[0,0,0,0,0,0,0,0,0,0,0,0,0],"id":8,"left_children":[1,3,5,7,9,-1,11,-1,-1,-1,-1,-1,-1],"loss_changes":[4.924852E2,2.9879926E2,1.830201E2,1.8799774E2,1.267751E2,0E0,1.9280241E2,0E0,0E0,0E0,0E0,0E0,0E0],"parents":[2147483647,0,0,1,1,2,2,3,3,4,4,6,6],"right_children":[2,4,6,8,10,-1,12,-1,-1,-1,-1,-1,-1],"split_conditions":[1E0,5E0,7E0,9.444409E1,2.112384E3,1.6302088E-2,1.9E1,-5.7182256E-3,1.0422176E-2,-2.1688152E-2,8.3562555E-3,-1.3634785E-2,1.1232956E-2],"split_indices":[0,13,28,21,42,0,56,0,0,0,0,0,0],"split_type":[0,0,0,0,0,0,0,0,0,0,0,0,0],"sum_hessian":[2.6227043E3,2.0951484E3,5.275559E2,1.9677982E3,1.2735016E2,5.682428E1,4.707316E2,1.4938347E2,1.8184148E3,8.9125E1,3.8225163E1,4.0082434E2,6.990728E1],"tree_param":{"num_deleted":"0","num_feature":"63","num_nodes":"13","size_leaf_vector":"1"}},{"base_weights":[3.7102053E-1,-4.1642566E0,1.6611807E-2,-5.9443884E-2,1.598241E-2],"categories":[],"categories_nodes":[],"categories_segments":[],"categories_sizes":[],"default_left":[0,0,0,0,0],"id":9,"left_children":[1,3,-1,-1,-1],"loss_changes":[1.0056385E4,2.8656104E2,0E0,0E0,0E0],"parents":[2147483647,0,0,1,1],"right_children":[2,4,-1,-1,-1],"split_conditions":[4.6E1,2.3319745E-2,1.6611807E-2,-5.9443884E-2,1.598241E-2],"split_indices":[20,33,0,0,0],"split_type":[0,0,0,0,0],"sum_hessian":[2.6744937E3,4.130544E2,2.2614392E3,4.0331583E2,9.738592E0],"tree_param":{"num_deleted":"0","num_feature":"63","num_nodes":"5","size_leaf_vector":"1"}},{"base_weights":[3.504864E-1,-3.9811137E0,1.6566025E-2,1.5912913E-2,-5.6768555E-2],"categories":[],"categories_nodes":[],"categories_segments":[],"categories_sizes":[],"default_left":[0,0,0,0,0],"id":10,"left_children":[1,3,-1,-1,-1],"loss_changes":[9.550369E3,2.6260254E2,0E0,0E0,0E0],"parents":[2147483647,0,0,1,1],"right_children":[2,4,-1,-1,-1],"split_conditions":[4.6E1,7.9932165E-1,1.6566025E-2,1.5912913E-2,-5.6768555E-2],"split_indices":[20,18,0,0,0],"split_type":[0,0,0,0,0],"sum_hessian":[2.6051926E3,4.2551443E2,2.1796782E3,9.594678E0,4.1591974E2],"tree_param":{"num_deleted":"0","num_feature":"63","num_nodes":"5","size_leaf_vector":"1"}},{"base_weights":[3.477981E-1,-6.707207E-1,5.1313454E-1,-1.6964538E0,-2.3155123E-1,-2.594171E-1,7.8479886E-1,-2.8771523E-2,-3.6852262E-3,-1.6779494E-2,4.050265E-3,-6.684211E-3,1.2347294E-2,1.3420235E-2,-7.3404983E-3],"categories":[],"categories_nodes":[],"categories_segments":[],"categories_sizes":[],"default_left":[0,0,0,0,0,0,0,0,0,0,0,0,0,0,0],"id":11,"left_children":[1,3,5,7,9,11,13,-1,-1,-1,-1,-1,-1,-1,-1],"loss_changes":[4.3935495E2,1.637987E2,4.7117334E2,5.915271E1,1.3152802E2,1.5030434E2,4.0328162E2,0E0,0E0,0E0,0E0,0E0,0E0,0E0,0E0],"parents":[2147483647,0,0,1,1,2,2,3,3,4,4,5,5,6,6],"right_children":[2,4,6,8,10,12,14,-1,-1,-1,-1,-1,-1,-1,-1],"split_conditions":[-8.6285084E-1,4.3297243E0,-8.612413E-1,4.7101E2,1.2E1,1.9E1,8.660254E-1,-2.8771523E-2,-3.6852262E-3,-1.6779494E-2,4.050265E-3,-6.684211E-3,1.2347294E-2,1.3420235E-2,-7.3404983E-3],"split_indices":[30,53,31,3,56,56,30,0,0,0,0,0,0,0,0],"split_type":[0,0,0,0,0,0,0,0,0,0,0,0,0,0,0],"sum_hessian":[2.6081729E3,3.6403253E2,2.2441404E3,1.0879435E2,2.5523817E2,5.837397E2,1.6604006E3,8.570275E1,2.30916E1,8.883888E1,1.6639929E2,4.8910687E2,9.463281E1,1.456181E3,2.042195E2],"tree_param":{"num_deleted":"0","num_feature":"63","num_nodes":"15","size_leaf_vector":"1"}},{"base_weights":[3.3289635E-1,-3.8176715E0,1.6501557E-2,1.5805012E-2,-5.4210626E-2],"categories":[],"categories_nodes":[],"categories_segments":[],"categories_sizes":[],"default_left":[0,0,0,0,0],"id":12,"left_children":[1,3,-1,-1,-1],"loss_changes":[9.284847E3,2.1885059E2,0E0,0E0,0E0],"parents":[2147483647,0,0,1,1],"right_children":[2,4,-1,-1,-1],"split_conditions":[4.6E1,1E0,1.6501557E-2,1.5805012E-2,-5.4210626E-2],"split_indices":[20,28,0,0,0],"split_type":[0,0,0,0,0],"sum_hessian":[2.6034412E3,4.462292E2,2.157212E3,8.566869E0,4.3766232E2],"tree_param":{"num_deleted":"0","num_feature":"63","num_nodes":"5","size_leaf_vector":"1"}},{"base_weights":[3.4743643E-1,5.7713574E-1,-5.48848E-1,-4.6479714E-1,6.721625E-1,-1.374321E0,-1.4294371E-1,1.5378628E-2,-1.1199842E-2,-1.2075784E-2,1.0059864E-2,-2.5493288E-2,1.0824662E-2,-1.117393E-2,3.8258617E-3],"categories":[],"categories_nodes":[],"categories_segments":[],"categories_sizes":[],"default_left":[0,0,0,0,0,0,0,0,0,0,0,0,0,0,0],"id":13,"left_children":[1,3,5,7,9,11,13,-1,-1,-1,-1,-1,-1,-1,-1],"loss_changes":[5.3835144E2,2.0619629E2,1.7850226E2,9.463684E1,1.6068787E2,1.7752982E2,9.9826065E1,0E0,0E0,0E0,0E0,0E0,0E0,0E0,0E0],"parents":[2147483647,0,0,1,1,2,2,3,3,4,4,5,5,6,6],"right_children":[2,4,6,8,10,12,14,-1,-1,-1,-1,-1,-1,-1,-1],"split_conditions":[1E0,1.1363623E0,1.01E0,8E0,-9.6404546E-1,-2.3951122E-1,1.7529173E1,1.5378628E-2,-1.1199842E-2,-1.2075784E-2,1.0059864E-2,-2.5493288E-2,1.0824662E-2,-1.117393E-2,3.8258617E-3],"split_indices":[0,36,2,28,32,33,54,0,0,0,0,0,0,0,0],"split_type":[0,0,0,0,0,0,0,0,0,0,0,0,0,0,0],"sum_hessian":[2.6141248E3,2.0810295E3,5.330953E2,1.7373668E2,1.9072928E3,1.7539462E2,3.5770068E2,3.0967813E1,1.4276886E2,6.476177E1,1.842531E3,1.4424194E2,3.1152672E1,1.384143E2,2.1928638E2],"tree_param":{"num_deleted":"0","num_feature":"63","num_nodes":"15","size_leaf_vector":"1"}},{"base_weights":[3.563227E-1,4.6919364E-1,-1.0243144E0,5.4178023E-1,-1.2685308E0,-2.176858E0,-2.5443032E-1,-5.24622E-3,9.7267E-3,-2.9714938E-2,-6.37502E-3,-3.42674E-2,6.1800354E-3,-2.5886131E-2,1.6437491E-3],"categories":[],"categories_nodes":[],"categories_segments":[],"categories_sizes":[],"default_left":[0,0,0,0,0,0,0,0,0,0,0,0,0,0,0],"id":14,"left_children":[1,3,5,7,9,11,13,-1,-1,-1,-1,-1,-1,-1,-1],"loss_changes":[4.073409E2,3.0489856E2,1.7484157E2,3.4352545E2,6.815764E1,6.2394806E1,7.188751E1,0E0,0E0,0E0,0E0,0E0,0E0,0E0,0E0],"parents":[2147483647,0,0,1,1,2,2,3,3,4,4,5,5,6,6],"right_children":[2,4,6,8,10,12,14,-1,-1,-1,-1,-1,-1,-1,-1],"split_conditions":[5E0,8.660254E-1,4.306537E2,-9.6169573E-1,4.306537E2,-2.3951122E-1,-8.6285084E-1,-5.24622E-3,9.7267E-3,-2.9714938E-2,-6.37502E-3,-3.42674E-2,6.1800354E-3,-2.5886131E-2,1.6437491E-3],"split_indices":[13,32,21,33,21,33,30,0,0,0,0,0,0,0,0],"split_type":[0,0,0,0,0,0,0,0,0,0,0,0,0,0,0],"sum_hessian":[2.613049E3,2.415831E3,1.9721782E2,2.3192305E3,9.6600655E1,7.869701E1,1.1852081E2,3.4465442E2,1.974576E3,4.5990185E1,5.0610466E1,7.07131E1,7.983912E0,2.2059843E1,9.646097E1],"tree_param":{"num_deleted":"0","num_feature":"63","num_nodes":"15","size_leaf_vector":"1"}},{"base_weights":[3.5288706E-1,-3.6336865E0,1.6420538E-2,-5.1706195E-2,-2.23205E0,-1.7585691E-2,-5.025914E-2],"categories":[],"categories_nodes":[],"categories_segments":[],"categories_sizes":[],"default_left":[0,0,0,0,0,0,0],"id":15,"left_children":[1,3,-1,-1,5,-1,-1],"loss_changes":[8.642277E3,6.052881E1,0E0,0E0,3.9890152E1,0E0,0E0],"parents":[2147483647,0,0,1,1,4,4],"right_children":[2,4,-1,-1,6,-1,-1],"split_conditions":[4.6E1,4.4E1,1.6420538E-2,-5.1706195E-2,3E0,-1.7585691E-2,-5.025914E-2],"split_indices":[20,20,0,0,26,0,0],"split_type":[0,0,0,0,0,0,0],"sum_hessian":[2.601197E3,4.4946796E2,2.1517292E3,4.186606E2,3.080734E1,1.8650322E1,1.2157019E1],"tree_param":{"num_deleted":"0","num_feature":"63","num_nodes":"7","size_leaf_vector":"1"}},{"base_weights":[3.3823058E-1,-3.5092256E0,1.6375743E-2,1.5762335E-2,-4.9813695E-2],"categories":[],"categories_nodes":[],"categories_segments":[],"categories_sizes":[],"default_left":[0,0,0,0,0],"id":16,"left_children":[1,3,-1,-1,-1],"loss_changes":[8.257166E3,1.9054834E2,0E0,0E0,0E0],"parents":[2147483647,0,0,1,1],"right_children":[2,4,-1,-1,-1],"split_conditions":[4.6E1,7.9932165E-1,1.6375743E-2,1.5762335E-2,-4.9813695E-2],"split_indices":[20,18,0,0,0],"split_type":[0,0,0,0,0],"sum_hessian":[2.5403167E3,4.5708182E2,2.0832349E3,8.487929E0,4.4859387E2],"tree_param":{"num_deleted":"0","num_feature":"63","num_nodes":"5","size_leaf_vector":"1"}},{"base_weights":[3.2966504E-1,5.294677E-1,-4.2446852E-1,7.7644265E-1,1.6543265E-2,1.5995983E-2,-6.116761E-1,5.3313985E-3,1.628441E-2,3.2638842E-3,-1.1651964E-2,-1.522344E-2,-3.1041845E-3],"categories":[],"categories_nodes":[],"categories_segments":[],"categories_sizes":[],"default_left":[0,0,0,0,0,0,0,0,0,0,0,0,0],"id":17,"left_children":[1,3,5,7,9,-1,11,-1,-1,-1,-1,-1,-1],"loss_changes":[3.7784756E2,2.510213E2,1.5549298E2,2.0901782E2,1.2128362E2,0E0,8.8601105E1,0E0,0E0,0E0,0E0,0E0,0E0],"parents":[2147483647,0,0,1,1,2,2,3,3,4,4,6,6],"right_children":[2,4,6,8,10,-1,12,-1,-1,-1,-1,-1,-1],"split_conditions":[1E0,2E0,1E0,1.0098912E0,8E0,1.5995983E-2,1.7194992E1,5.3313985E-3,1.628441E-2,3.2638842E-3,-1.1651964E-2,-1.522344E-2,-3.1041845E-3],"split_indices":[0,34,34,34,1,0,54,0,0,0,0,0,0],"split_type":[0,0,0,0,0,0,0,0,0,0,0,0,0],"sum_hessian":[2.506799E3,1.9819331E3,5.2486584E2,1.3375366E3,6.4439655E2,5.5373497E1,4.6949234E2,6.763674E2,6.6116925E2,5.135634E2,1.3083308E2,2.0742444E2,2.620679E2],"tree_param":{"num_deleted":"0","num_feature":"63","num_nodes":"13","size_leaf_vector":"1"}},{"base_weights":[3.2898742E-1,-3.395413E0,1.63247E-2,1.5582655E-2,-4.8011288E-2],"categories":[],"categories_nodes":[],"categories_segments":[],"categories_sizes":[],"default_left":[0,0,0,0,0],"id":18,"left_children":[1,3,-1,-1,-1],"loss_changes":[8.089631E3,1.5716113E2,0E0,0E0,0E0],"parents":[2147483647,0,0,1,1],"right_children":[2,4,-1,-1,-1],"split_conditions":[4.6E1,1E0,1.63247E-2,1.5582655E-2,-4.8011288E-2],"split_indices":[20,28,0,0,0],"split_type":[0,0,0,0,0],"sum_hessian":[2.5542075E3,4.7449734E2,2.0797102E3,7.3975034E0,4.6709985E2],"tree_param":{"num_deleted":"0","num_feature":"63","num_nodes":"5","size_leaf_vector":"1"}},{"base_weights":[3.334621E-1,5.377351E-1,-4.3834496E-1,6.3717324E-1,-7.054399E-1,1.6149784E-2,-6.028477E-1,1.1616732E-2,2.67025E-3,-1.743861E-2,8.872116E-3,-1.9157661E-2,-3.0565395E-3],"categories":[],"categories_nodes":[],"categories_segments":[],"categories_sizes":[],"default_left":[0,0,0,0,0,0,0,0,0,0,0,0,0],"id":19,"left_children":[1,3,5,7,9,-1,11,-1,-1,-1,-1,-1,-1],"loss_changes":[3.9691013E2,2.4619427E2,1.392417E2,1.6521033E2,1.1035873E2,0E0,1.4238705E2,0E0,0E0,0E0,0E0,0E0,0E0],"parents":[2147483647,0,0,1,1,2,2,3,3,4,4,6,6],"right_children":[2,4,6,8,10,-1,12,-1,-1,-1,-1,-1,-1],"split_conditions":[1E0,5E0,1E0,2E0,3.901847E2,1.6149784E-2,1.01E0,1.1616732E-2,2.67025E-3,-1.743861E-2,8.872116E-3,-1.9157661E-2,-3.0565395E-3],"split_indices":[0,13,34,34,41,0,2,0,0,0,0,0,0],"split_type":[0,0,0,0,0,0,0,0,0,0,0,0,0],"sum_hessian":[2.5166714E3,1.990169E3,5.2650244E2,1.842991E3,1.47178E2,4.871317E1,4.7778928E2,1.2667561E3,5.7623474E2,1.04330734E2,4.284726E1,1.5660095E2,3.2118832E2],"tree_param":{"num_deleted":"0","num_feature":"63","num_nodes":"13","size_leaf_vector":"1"}},{"base_weights":[3.211039E-1,4.3891236E-1,-1.0089284E0,5.732223E-1,-4.3942878E-1,-1.3829592E0,4.6317226E-1,8.832124E-3,-1.3020919E-2,-2.1080317E-2,6.694061E-4,-7.6804375E-3,-2.567798E-2,1.0218474E-2,-2.765926E-2],"categories":[],"categories_nodes":[],"categories_segments":[],"categories_sizes":[],"default_left":[0,0,0,0,0,0,0,0,0,0,0,0,0,0,0],"id":20,"left_children":[1,3,5,7,9,11,13,-1,-1,-1,-1,-1,-1,-1,-1],"loss_changes":[3.9496475E2,2.732431E2,1.1322012E2,1.9698901E2,1.6248419E2,6.3375946E1,2.8558945E1,0E0,0E0,0E0,0E0,0E0,0E0,0E0,0E0],"parents":[2147483647,0,0,1,1,2,2,3,3,4,4,5,5,6,6],"right_children":[2,4,6,8,10,12,14,-1,-1,-1,-1,-1,-1,-1,-1],"split_conditions":[5E0,1E0,2.112384E3,8.660254E-1,2.7562018E2,2E-1,8E0,8.832124E-3,-1.3020919E-2,-2.1080317E-2,6.694061E-4,-7.6804375E-3,-2.567798E-2,1.0218474E-2,-2.765926E-2],"split_indices":[13,29,42,32,21,12,9,0,0,0,0,0,0,0,0],"split_type":[0,0,0,0,0,0,0,0,0,0,0,0,0,0,0],"sum_hessian":[2.519884E3,2.3151108E3,2.0477328E2,2.0082523E3,3.0685855E2,1.6335844E2,4.1414845E1,1.9261287E3,8.2123634E1,9.51376E1,2.1172096E2,5.9616146E1,1.037423E2,3.7488686E1,3.926158E0],"tree_param":{"num_deleted":"0","num_feature":"63","num_nodes":"15","size_leaf_vector":"1"}},{"base_weights":[3.2298103E-1,5.302779E-1,-4.5972958E-1,6.5344274E-1,-3.9353034E-1,1.6101766E-2,-6.2407464E-1,1.1886085E-2,2.8686915E-3,-2.5529059E-2,-1.4471876E-3,-1.6787546E-2,-2.1103295E-3],"categories":[],"categories_nodes":[],"categories_segments":[],"categories_sizes":[],"default_left":[0,0,0,0,0,0,0,0,0,0,0,0,0],"id":21,"left_children":[1,3,5,7,9,-1,11,-1,-1,-1,-1,-1,-1],"loss_changes":[4.0709027E2,2.2578833E2,1.4026654E2,1.6003601E2,9.758125E1,0E0,1.3227052E2,0E0,0E0,0E0,0E0,0E0,0E0],"parents":[2147483647,0,0,1,1,2,2,3,3,4,4,6,6],"right_children":[2,4,6,8,10,-1,12,-1,-1,-1,-1,-1,-1],"split_conditions":[1E0,1E0,1E0,2E0,1.111E1,1.6101766E-2,1.672E1,1.1886085E-2,2.8686915E-3,-2.5529059E-2,-1.4471876E-3,-1.6787546E-2,-2.1103295E-3],"split_indices":[0,29,34,34,37,0,54,0,0,0,0,0,0],"split_type":[0,0,0,0,0,0,0,0,0,0,0,0,0],"sum_hessian":[2.50815E3,1.9831575E3,5.249924E2,1.7500432E3,2.331143E2,4.804437E1,4.7694803E2,1.1985851E3,5.514581E2,3.8389484E1,1.9472482E2,2.1186461E2,2.650834E2],"tree_param":{"num_deleted":"0","num_feature":"63","num_nodes":"13","size_leaf_vector":"1"}},{"base_weights":[3.222044E-1,5.3435504E-1,-4.4740146E-1,-6.2721086E-1,6.41357E-1,1.6066933E-2,-6.206558E-1,-1.00345205E-4,-2.1286791E-2,-1.3062312E-2,9.648955E-3,-1.1889985E-2,1.0569358E-2],"categories":[],"categories_nodes":[],"categories_segments":[],"categories_sizes":[],"default_left":[0,0,0,0,0,0,0,0,0,0,0,0,0],"id":22,"left_children":[1,3,5,7,9,-1,11,-1,-1,-1,-1,-1,-1],"loss_changes":[4.0387027E2,2.4111493E2,1.4906392E2,9.217823E1,1.5665735E2,0E0,1.5936122E2,0E0,0E0,0E0,0E0,0E0,0E0],"parents":[2147483647,0,0,1,1,2,2,3,3,4,4,6,6],"right_children":[2,4,6,8,10,-1,12,-1,-1,-1,-1,-1,-1],"split_conditions":[1E0,1.0284134E2,1E0,1.9991149E0,-9.6404546E-1,1.6066933E-2,2.7E1,-1.00345205E-4,-2.1286791E-2,-1.3062312E-2,9.648955E-3,-1.1889985E-2,1.0569358E-2],"split_indices":[0,21,34,34,32,0,58,0,0,0,0,0,0],"split_type":[0,0,0,0,0,0,0,0,0,0,0,0,0],"sum_hessian":[2.4727725E3,1.938607E3,5.341654E2,1.6330696E2,1.7753002E3,5.172462E1,4.824408E2,9.740547E1,6.590148E1,5.9940823E1,1.7153594E3,4.1177652E2,7.066427E1],"tree_param":{"num_deleted":"0","num_feature":"63","num_nodes":"13","size_leaf_vector":"1"}},{"base_weights":[3.007964E-1,5.0385374E-1,-4.54501E-1,-3.3996332E-1,6.511494E-1,1.5737524E-2,-6.158433E-1,-1.448606E-2,5.2433717E-3,1.13680335E-2,-2.3873172E-4,-1.128445E-2,1.0163903E-2],"categories":[],"categories_nodes":[],"categories_segments":[],"categories_sizes":[],"default_left":[0,0,0,0,0,0,0,0,0,0,0,0,0],"id":23,"left_children":[1,3,5,7,9,-1,11,-1,-1,-1,-1,-1,-1],"loss_changes":[3.8478806E2,2.4584732E2,1.3662793E2,1.4942328E2,1.9136969E2,0E0,1.3008302E2,0E0,0E0,0E0,0E0,0E0,0E0],"parents":[2147483647,0,0,1,1,2,2,3,3,4,4,6,6],"right_children":[2,4,6,8,10,-1,12,-1,-1,-1,-1,-1,-1],"split_conditions":[1E0,-9.6169573E-1,1E0,2.3581776E1,1.5E1,1.5737524E-2,1.9E1,-1.448606E-2,5.2433717E-3,1.13680335E-2,-2.3873172E-4,-1.128445E-2,1.0163903E-2],"split_indices":[0,33,34,36,28,0,56,0,0,0,0,0,0],"split_type":[0,0,0,0,0,0,0,0,0,0,0,0,0],"sum_hessian":[2.5080962E3,1.9768707E3,5.312255E2,2.9362738E2,1.6832434E3,4.8669735E1,4.8255582E2,1.4808485E2,1.4554253E2,1.342029E3,3.4121432E2,4.2066962E2,6.1886204E1],"tree_param":{"num_deleted":"0","num_feature":"63","num_nodes":"13","size_leaf_vector":"1"}},{"base_weights":[3.0904078E-1,6.1081296E-1,-2.1840094E-1,1.6479771E-1,1.6127901E-2,-1.0934334E0,-4.521528E-3,1.6049035E-2,-2.6357912E-3,-1.0279086E-2,-3.3758942E-2,6.410834E-3,-4.066785E-3],"categories":[],"categories_nodes":[],"categories_segments":[],"categories_sizes":[],"default_left":[0,0,0,0,0,0,0,0,0,0,0,0,0],"id":24,"left_children":[1,3,5,7,-1,9,11,-1,-1,-1,-1,-1,-1],"loss_changes":[3.9312988E2,3.8805756E2,1.6808896E2,3.0776834E2,0E0,8.238225E1,9.775642E1,0E0,0E0,0E0,0E0,0E0,0E0],"parents":[2147483647,0,0,1,1,2,2,3,3,5,5,6,6],"right_children":[2,4,6,8,-1,10,12,-1,-1,-1,-1,-1,-1],"split_conditions":[2E0,1.0098912E0,1.0231E2,1E0,1.6127901E-2,5E0,2.5E-1,1.6049035E-2,-2.6357912E-3,-1.0279086E-2,-3.3758942E-2,6.410834E-3,-4.066785E-3],"split_indices":[34,34,3,34,0,8,12,0,0,0,0,0,0],"split_type":[0,0,0,0,0,0,0,0,0,0,0,0,0],"sum_hessian":[2.4690813E3,1.5706163E3,8.9846484E2,8.7053345E2,7.000829E2,1.7612277E2,7.2234204E2,2.2899199E2,6.4154144E2,1.4012415E2,3.5998627E1,2.7584207E2,4.4649997E2],"tree_param":{"num_deleted":"0","num_feature":"63","num_nodes":"13","size_leaf_vector":"1"}},{"base_weights":[2.9217952E-1,-3.2376292E0,1.6212761E-2,1.5320054E-2,-3.3012965E0,-4.7297917E-2,-4.3453887E-2],"categories":[],"categories_nodes":[],"categories_segments":[],"categories_sizes":[],"default_left":[0,0,0,0,0,0,0],"id":25,"left_children":[1,3,-1,-1,5,-1,-1],"loss_changes":[7.602489E3,1.3649365E2,0E0,0E0,4.966797E0,0E0,0E0],"parents":[2147483647,0,0,1,1,4,4],"right_children":[2,4,-1,-1,6,-1,-1],"split_conditions":[4.6E1,7.630636E-1,1.6212761E-2,1.5320054E-2,1E0,-4.7297917E-2,-4.3453887E-2],"split_indices":[20,18,0,0,0,0,0],"split_type":[0,0,0,0,0,0,0],"sum_hessian":[2.449942E3,4.882172E2,1.9617247E3,6.95378E0,4.8126343E2,2.776901E2,2.0357332E2],"tree_param":{"num_deleted":"0","num_feature":"63","num_nodes":"7","size_leaf_vector":"1"}},{"base_weights":[2.9279166E-1,5.0176793E-1,-4.8665538E-1,6.010255E-1,-7.616347E-1,-1.8585673E-1,-1.2327261E0,-1.2656644E-2,9.167739E-3,-1.8382518E-2,4.250591E-3,2.5770366E-3,-1.182523E-2,-3.2001488E-2,-1.3154625E-2],"categories":[],"categories_nodes":[],"categories_segments":[],"categories_sizes":[],"default_left":[0,0,0,0,0,0,0,0,0,0,0,0,0,0,0],"id":26,"left_children":[1,3,5,7,9,11,13,-1,-1,-1,-1,-1,-1,-1,-1],"loss_changes":[3.94187E2,2.3942511E2,1.1458914E2,1.6419171E2,8.437238E1,9.0880264E1,4.3725784E1,0E0,0E0,0E0,0E0,0E0,0E0,0E0,0E0],"parents":[2147483647,0,0,1,1,2,2,3,3,4,4,5,5,6,6],"right_children":[2,4,6,8,10,12,14,-1,-1,-1,-1,-1,-1,-1,-1],"split_conditions":[1E0,5E0,3E0,-9.6404546E-1,3.6697583E2,1.15E0,-9.6169573E-1,-1.2656644E-2,9.167739E-3,-1.8382518E-2,4.250591E-3,2.5770366E-3,-1.182523E-2,-3.2001488E-2,-1.3154625E-2],"split_indices":[0,13,61,32,40,18,33,0,0,0,0,0,0,0,0],"split_type":[0,0,0,0,0,0,0,0,0,0,0,0,0,0,0],"sum_hessian":[2.4192288E3,1.9079415E3,5.1128732E2,1.7691948E3,1.3874661E2,3.6475784E2,1.465295E2,6.8422035E1,1.7007728E3,9.0712074E1,4.8034542E1,2.3436668E2,1.3039114E2,2.9868484E1,1.1666101E2],"tree_param":{"num_deleted":"0","num_feature":"63","num_nodes":"15","size_leaf_vector":"1"}},{"base_weights":[2.96261E-1,-6.026199E-1,4.6300972E-1,-1.7340229E0,-1.5490744E-1,6.830851E-1,-5.681202E-2,-2.6640369E-2,2.9734613E-3,-2.4115827E-2,-1.7623494E-4,1.14061665E-2,-9.760026E-3,1.5794834E-2,-4.7164853E-3],"categories":[],"categories_nodes":[],"categories_segments":[],"categories_sizes":[],"default_left":[0,0,0,0,0,0,0,0,0,0,0,0,0,0,0],"id":27,"left_children":[1,3,5,7,9,11,13,-1,-1,-1,-1,-1,-1,-1,-1],"loss_changes":[3.7254675E2,1.9670525E2,2.399129E2,4.115619E1,6.2769207E1,2.88094E2,2.1209258E2,0E0,0E0,0E0,0E0,0E0,0E0,0E0,0E0],"parents":[2147483647,0,0,1,1,2,2,3,3,4,4,5,5,6,6],"right_children":[2,4,6,8,10,12,14,-1,-1,-1,-1,-1,-1,-1,-1],"split_conditions":[-8.6285084E-1,2.5386488E2,5E-1,2.070772E0,-5.894253E-1,1.1E1,9.5E-1,-2.6640369E-2,2.9734613E-3,-2.4115827E-2,-1.7623494E-4,1.14061665E-2,-9.760026E-3,1.5794834E-2,-4.7164853E-3],"split_indices":[30,21,30,34,51,9,18,0,0,0,0,0,0,0,0],"split_type":[0,0,0,0,0,0,0,0,0,0,0,0,0,0,0],"sum_hessian":[2.48472E3,3.88579E2,2.096141E3,1.09848694E2,2.7873032E2,1.4727388E3,6.234023E2,1.0013149E2,9.717202E0,2.2567368E1,2.5616296E2,1.33729E3,1.3544873E2,1.19191284E2,5.04211E2],"tree_param":{"num_deleted":"0","num_feature":"63","num_nodes":"15","size_leaf_vector":"1"}},{"base_weights":[2.94497E-1,5.092176E-1,-4.7751436E-1,6.0817045E-1,-6.61394E-1,-6.783208E-1,8.272334E-1,-6.5874415E-3,9.58791E-3,-1.60502E-2,8.085807E-3,-2.9093127E-3,-1.8855602E-2,1.2757051E-2,-1.3210278E-2],"categories":[],"categories_nodes":[],"categories_segments":[],"categories_sizes":[],"default_left":[0,0,0,0,0,0,0,0,0,0,0,0,0,0,0],"id":28,"left_children":[1,3,5,7,9,11,13,-1,-1,-1,-1,-1,-1,-1,-1],"loss_changes":[4.054328E2,2.2176651E2,1.3959006E2,1.615299E2,9.280373E1,1.4743564E2,1.2197926E1,0E0,0E0,0E0,0E0,0E0,0E0,0E0,0E0],"parents":[2147483647,0,0,1,1,2,2,3,3,4,4,5,5,6,6],"right_children":[2,4,6,8,10,12,14,-1,-1,-1,-1,-1,-1,-1,-1],"split_conditions":[1E0,5E0,1.9E1,8.8890434E1,3.8175876E2,1.1485164E0,1.9E1,-6.5874415E-3,9.58791E-3,-1.60502E-2,8.085807E-3,-2.9093127E-3,-1.8855602E-2,1.2757051E-2,-1.3210278E-2],"split_indices":[0,13,56,21,41,18,23,0,0,0,0,0,0,0,0],"split_type":[0,0,0,0,0,0,0,0,0,0,0,0,0,0,0],"sum_hessian":[2.4450127E3,1.9131499E3,5.318629E2,1.7642566E3,1.4889333E2,4.6112512E2,7.073778E1,1.2722164E2,1.6370349E3,1.0644332E2,4.2450005E1,2.7402954E2,1.8709558E2,6.738382E1,3.3539577E0],"tree_param":{"num_deleted":"0","num_feature":"63","num_nodes":"15","size_leaf_vector":"1"}},{"base_weights":[2.839336E-1,-3.125693E0,1.6118202E-2,1.5155844E-2,-4.4001378E-2],"categories":[],"categories_nodes":[],"categories_segments":[],"categories_sizes":[],"default_left":[0,0,0,0,0],"id":29,"left_children":[1,3,-1,-1,-1],"loss_changes":[7.2818315E3,1.1183838E2,0E0,0E0,0E0],"parents":[2147483647,0,0,1,1],"right_children":[2,4,-1,-1,-1],"split_conditions":[4.6E1,7.9932165E-1,1.6118202E-2,1.5155844E-2,-4.4001378E-2],"split_indices":[20,18,0,0,0],"split_type":[0,0,0,0,0],"sum_hessian":[2.4254102E3,4.9751614E2,1.927894E3,6.0241275E0,4.9149203E2],"tree_param":{"num_deleted":"0","num_feature":"63","num_nodes":"5","size_leaf_vector":"1"}},{"base_weights":[2.7506468E-1,-3.027297E0,1.6079644E-2,-4.2767495E-2,-2.0399456E0,-8.373398E-3,-3.9444204E-2],"categories":[],"categories_nodes":[],"categories_segments":[],"categories_sizes":[],"default_left":[0,0,0,0,0,0,0],"id":30,"left_children":[1,3,-1,-1,5,-1,-1],"loss_changes":[7.1374473E3,2.9010742E1,0E0,0E0,3.5616196E1,0E0,0E0],"parents":[2147483647,0,0,1,1,4,4],"right_children":[2,4,-1,-1,6,-1,-1],"split_conditions":[4.6E1,4.4E1,1.6079644E-2,-4.2767495E-2,5E0,-8.373398E-3,-3.9444204E-2],"split_indices":[20,20,0,0,25,0,0],"split_type":[0,0,0,0,0,0,0],"sum_hessian":[2.4376956E3,5.1566406E2,1.9220315E3,4.8452646E2,3.1137589E1,1.1470703E1,1.9666885E1],"tree_param":{"num_deleted":"0","num_feature":"63","num_nodes":"7","size_leaf_vector":"1"}},{"base_weights":[2.8414723E-1,-2.9277132E0,1.6026795E-2,1.5391631E-2,-4.148564E-2],"categories":[],"categories_nodes":[],"categories_segments":[],"categories_sizes":[],"default_left":[0,0,0,0,0],"id":31,"left_children":[1,3,-1,-1,-1],"loss_changes":[6.711908E3,1.4354395E2,0E0,0E0,0E0],"parents":[2147483647,0,0,1,1],"right_children":[2,4,-1,-1,-1],"split_conditions":[4.6E1,1E0,1.6026795E-2,1.5391631E-2,-4.148564E-2],"split_indices":[20,28,0,0,0],"split_type":[0,0,0,0,0],"sum_hessian":[2.3917444E3,5.1120004E2,1.8805442E3,8.464414E0,5.0273563E2],"tree_param":{"num_deleted":"0","num_feature":"63","num_nodes":"5","size_leaf_vector":"1"}},{"base_weights":[2.7745852E-1,-2.8584695E0,1.6008636E-2,1.5286517E-2,-2.917775E0,-4.1928906E-2,-3.813453E-2],"categories":[],"categories_nodes":[],"categories_segments":[],"categories_sizes":[],"default_left":[0,0,0,0,0,0,0],"id":32,"left_children":[1,3,-1,-1,5,-1,-1],"loss_changes":[6.556563E3,1.2358154E2,0E0,0E0,6.065918E0,0E0,0E0],"parents":[2147483647,0,0,1,1,4,4],"right_children":[2,4,-1,-1,6,-1,-1],"split_conditions":[4.6E1,7.9932165E-1,1.6008636E-2,1.5286517E-2,1E0,-4.1928906E-2,-3.813453E-2],"split_indices":[20,18,0,0,0,0,0],"split_type":[0,0,0,0,0,0,0],"sum_hessian":[2.3783179E3,5.2045374E2,1.857864E3,7.5667734E0,5.1288696E2,3.0184097E2,2.1104599E2],"tree_param":{"num_deleted":"0","num_feature":"63","num_nodes":"7","size_leaf_vector":"1"}},{"base_weights":[2.825539E-1,-2.7885654E0,1.5979638E-2,1.5232829E-2,-3.9394293E-2],"categories":[],"categories_nodes":[],"categories_segments":[],"categories_sizes":[],"default_left":[0,0,0,0,0],"id":33,"left_children":[1,3,-1,-1,-1],"loss_changes":[6.352969E3,1.17372314E2,0E0,0E0,0E0],"parents":[2147483647,0,0,1,1],"right_children":[2,4,-1,-1,-1],"split_conditions":[4.6E1,1E0,1.5979638E-2,1.5232829E-2,-3.9394293E-2],"split_indices":[20,28,0,0,0],"split_type":[0,0,0,0,0],"sum_hessian":[2.3725027E3,5.2433997E2,1.8481628E3,7.459221E0,5.1688074E2],"tree_param":{"num_deleted":"0","num_feature":"63","num_nodes":"5","size_leaf_vector":"1"}}]},"name":"gbtree"},"learner_model_param":{"base_score":"[8.171805E-1]","boost_from_average":"1","num_class":"0","num_feature":"63","num_target":"1"},"objective":{"name":"binary:logistic","reg_loss_param":{"scale_pos_weight":"6.9579916"}}},"version":[3,2,0]}